svm_type c_svc
kernel_type rbf
gamma 0.09
nr_class 2
total_sv 35
rho -0.294783
label 7 7657
nr_sv 20 15
SV
3.776693947053003 1:0.88260651 2:0.45874336 3:0.39636678 4:0.64661622 5:0.28318891 6:0.47132671 7:0.52999496 8:0.39534104 9:0.73222053 10:0.41680846 11:0.40258315 12:0.45361036 13:0.23939033 14:0.13616148 15:0.52562779 16:0.087195352 17:0.5888986 18:0.77046132 19:0.28888282 20:0.91385293 21:0.51539683 22:0.73296559 23:0.94181383 24:0.30801263 25:0.32236427 26:0.024777731 27:0.2560721 28:0.47088638 29:0.26860374 
1.049365666240564 1:0.9392454 2:0.4724277 3:0.23843731 4:0.77234077 5:0.28571874 6:0.19860028 7:0.47784969 8:0.37743711 9:0.65492153 10:0.58908898 11:0.13273779 12:0.30650175 13:0.049912132 14:0.31522241 15:0.46913862 16:0.42346314 17:0.5329597 18:0.64411622 19:0.24926586 20:0.86631262 21:0.40182021 22:0.56084621 23:0.787579 24:0.42298067 25:0.26010069 26:0.08195582 27:0.37782884 28:0.49452519 29:0.24539031 
2.776968180853345 1:0.55670357 2:0.49418962 3:0.35899904 4:0.47985357 5:0.6391362 6:0.48637524 7:0.62110734 8:0.39846513 9:0.13648686 10:0.51597589 11:0.52295512 12:0.29011986 13:0.53761709 14:0.62102729 15:0.37602761 16:0.24162993 17:0.57568026 18:0.92003852 19:0.56350154 20:0.69624686 21:0.81612843 22:0.64628643 23:0.36624396 24:0.53493732 25:0.53541166 26:0.59418374 27:0.66126078 28:0.29829124 29:0.079394877 
1.827085812142941 1:0.58758515 2:0.46238729 3:0.39039022 4:0.55276775 5:0.43765783 6:0.37531653 7:0.57087344 8:0.34813216 9:0.52368951 10:0.45670915 11:0.43905544 12:0.44318998 13:0.67549658 14:0.66847676 15:0.43590811 16:0.09818621 17:0.29553166 18:0.2632418 19:0.52729553 20:0.24714963 21:0.03578794 22:0.44520539 23:0.57187027 24:0.66172928 25:0.32026604 26:0.43834558 27:0.32800627 28:0.13210826 29:0.10232772 
3.856652027346148 1:0.55542159 2:0.56265354 3:0.42636651 4:0.65583503 5:0.57658494 6:0.49059412 7:0.42355794 8:0.47871771 9:0.29727972 10:0.54454273 11:0.11059235 12:0.61699229 13:0.29825848 14:0.50162208 15:0.088499382 16:0.25100049 17:0.21842858 18:0.47257814 19:0.37617457 20:0.47452384 21:0.70968378 22:0.40585265 23:0.29720274 24:0.74920547 25:0.27748382 26:0.3283143 27:0.64330947 28:0.43310544 29:0.1750211 
0.8314623093443654 1:0.61110401 2:0.41781262 3:0.25014549 4:0.50670296 5:0.46311319 6:0.40460512 7:0.39110219 8:0.43396744 9:0.76585656 10:0.35312662 11:0.53099632 12:0.47311261 13:0.10566991 14:0.60730213 15:0.23774406 16:0.087827295 17:0.33738992 18:0.74560326 19:0.5960651 20:0.535689 21:0.68457973 22:0.55429131 23:0.70990795 24:0.46159124 25:0.39138684 26:0.86059576 27:0.4405179 28:0.031704348 29:0.025840772 
0.5778168934584513 1:0.53129202 2:0.39217356 3:0.51921296 4:0.51748669 5:0.67823094 6:0.38502526 7:0.62727511 8:0.47263139 9:0.58357084 10:0.12762867 11:0.42245865 12:0.35741153 13:0.17274678 14:0.2502932 15:0.53517586 16:0.96753514 17:0.56949443 18:0.7033636 19:0.43331206 20:0.37910181 21:0.29516387 22:0.45777929 23:0.40094227 24:0.600761 25:0.40239796 26:0.59241158 27:0.44637272 28:0.12362685 29:0.047404364 
0.6278114114569481 1:0.74557871 2:0.72876817 3:0.18528724 4:0.57033622 5:0.45560229 6:0.43000945 7:0.44949263 8:0.33510414 9:0.73672372 10:0.79379994 11:0.51837653 12:0.55048054 13:0.20521209 14:0.65624106 15:0.31556603 16:0.26488051 17:0.30097142 18:0.57018715 19:0.44057599 20:0.33179578 21:0.068838209 22:0.58977103 23:0.62175393 24:0.66863334 25:0.50728899 26:0.60239053 27:0.73209637 28:0.79541498 29:0.2433715 
1.464295042935504 1:0.68220931 2:0.65443975 3:0.37604457 4:0.63621062 5:0.42205352 6:0.49832878 7:0.56358129 8:0.78951967 9:0.37351429 10:0.52289909 11:0.37750289 12:0.3765294 13:0.41300362 14:0.63244188 15:0.30032465 16:0.24622491 17:0.25451607 18:0.60519046 19:0.35962957 20:0.40922666 21:0.48264971 22:0.52106285 23:0.57776392 24:0.48488054 25:0.35966778 26:0.84820771 27:0.7705065 28:0.88320345 29:0.26063332 
1.01751117600323 1:0.67261386 2:0.75917178 3:0.5899539 4:0.22444043 5:0.32508001 6:0.20814043 7:0.3196421 8:0.24759766 9:0.40991345 10:0.19654055 11:0.29305819 12:0.38690183 13:0.21563968 14:0.27897841 15:0.25078258 16:0.026991099 17:0.88178414 18:0.74869156 19:0.22886901 20:0.45576477 21:0.50925988 22:0.83318484 23:0.26785234 24:0.29830629 25:0.3802042 26:0.72397554 27:0.58643174 28:0.33235982 29:0.19776724 
1.631525043530284 1:0.49618122 2:0.49994704 3:0.62292123 4:0.27109724 5:0.12654179 6:0.3634913 7:0.36285552 8:0.086847372 9:0.46859756 10:0.24681625 11:0.17804407 12:0.24156766 13:0.099075869 14:0.41503119 15:0.18002404 16:0.087987356 17:0.72294319 18:0.76088822 19:0.20609765 20:0.33890325 21:0.2368899 22:0.94091332 23:0.22552755 24:0.35501844 25:0.42014986 26:0.55740261 27:0.64758652 28:0.30819657 29:0.19047597 
2.98436791253514 1:0.59983033 2:0.42292431 3:0.2116878 4:0.48318064 5:0.76422048 6:0.7069518 7:0.3810643 8:0.38832134 9:0.62553138 10:0.54413468 11:0.18120058 12:0.61290264 13:0.24718571 14:0.97327822 15:0.099677108 16:0.37582985 17:0.82209802 18:0.79924762 19:0.11231806 20:0.3587786 21:0.21329367 22:0.76931685 23:0.2573044 24:0.48260602 25:0.54280651 26:0.26611158 27:0.7173081 28:0.25269052 29:0.24272034 
0.451284818939806 1:0.57431602 2:0.4601104 3:0.32285294 4:0.54208821 5:0.41752169 6:0.4240734 7:0.59366971 8:0.42071369 9:0.47728714 10:0.4584879 11:0.43893841 12:0.36955574 13:0.39174503 14:0.41311559 15:0.42033395 16:0.43845996 17:0.61682373 18:0.68351877 19:0.51573342 20:0.67990321 21:0.7014581 22:0.64457786 23:0.25061953 24:0.73035246 25:0.44864586 26:0.63089323 27:0.68578935 28:0.20644452 29:0.081111617 
1.51821017242911 1:0.39749467 2:0.47420722 3:0.28939134 4:0.30332512 5:0.37641296 6:0.60227799 7:0.58228707 8:0.41370189 9:0.51477474 10:0.39205572 11:0.71877348 12:0.38488072 13:0.40982145 14:0.3634187 15:0.33220914 16:0.36248544 17:0.42651287 18:0.76713759 19:0.37207225 20:0.89809555 21:0.76318771 22:0.72065419 23:1 24:0.29653081 25:0.088505834 26:1.5384816e-16 27:0.29981077 28:0.45204243 29:0.28224796 
0.895421844115896 1:0.58769834 2:0.38743782 3:0.35151711 4:0.5763222 5:0.55578065 6:0.47312737 7:0.64041001 8:0.6021992 9:0.59615678 10:0.31671354 11:0.33570758 12:0.51160043 13:0.56999862 14:0.68981504 15:0.50852054 16:0.18441086 17:0.31112629 18:0.33286476 19:0.57378465 20:0.24329761 21:0 22:0.4722912 23:0.58055878 24:0.72817153 25:0.32556891 26:0.37184894 27:0.33856705 28:0.094089717 29:0.099258423 
1.538353994134938 1:0.66527063 2:0.28506529 3:0.35974205 4:0.35591507 5:0.57132858 6:0.65134764 7:0.56404287 8:0.44802895 9:0.68392539 10:0.48783347 11:0.22454892 12:0.42493102 13:0.41800696 14:0.57244098 15:0.40631571 16:0.31612217 17:0.4250232 18:0.66110009 19:0.53560019 20:0.61580873 21:0.50291526 22:0.56252843 23:0.59685689 24:0.40535522 25:0.24402018 26:0.86659992 27:0.79851115 28:1 29:0.27337897 
1.992957828985752 1:0.37455299 2:0.77125585 3:1 4:0.091991007 5:0.71229154 6:0.22710775 7:0.74250978 8:0.53310442 9:0.63750005 10:0.30297443 11:0.60448456 12:0.48554349 13:0.50335813 14:0.76518631 15:0.41367027 16:0.18599024 17:0.24448238 18:0.3676022 19:0.27757484 20:0.97563195 21:0.8668108 22:0.44909692 23:0.41548812 24:0.47950122 25:0.2651462 26:0.77754813 27:0.30634114 28:0.30386311 29:0.16756438 
0.7680207936014281 1:0.59674585 2:0.15089941 3:0.23819767 4:0.92349339 5:0.37424752 6:0.75997281 7:0.33744618 8:0.14915255 9:0.44333887 10:0.26411846 11:0.84588152 12:0.87144917 13:0.64348352 14:1 15:0.10485968 16:0.28448552 17:0.76498103 18:0.81273389 19:0.17178914 20:0.93436742 21:0.52643371 22:0.43383306 23:0.38822517 24:0.3829886 25:0.68507504 26:0.38512757 27:0.40460274 28:0.18103595 29:0.15185931 
1.698062111137256 1:0.74055302 2:0.25571796 3:0.38915554 4:0.42709109 5:0.45528868 6:0.60281044 7:0.53837132 8:0.58519 9:0.64466918 10:0.63152456 11:0.36278316 12:0.4808166 13:0.27052775 14:0.33043361 15:0.44806647 16:0.11532401 17:0.36951202 18:0.66925991 19:0.46847376 20:0.52730173 21:0.66679591 22:0.50192106 23:0.69898576 24:0.41350821 25:0.37955812 26:0.92947227 27:0.43209159 28:0.047425572 29:0.031221528 
10 1:0 2:0.60388511 3:0.32970813 4:0 5:0.27823165 6:0.03373776 7:0.45798603 8:0.4777438 9:0.77933532 10:0.40441489 11:0.34470639 12:0.55331397 13:0.43941766 14:0.49158177 15:0.66033524 16:0.10127697 17:0.88300949 18:0.20471431 19:0.48310673 20:0.86466467 21:0.87098575 22:0.18505327 23:0.212035 24:0.50646937 25:0.28125891 26:0.42232472 27:0.80318278 28:0.4400813 29:0.59281242 
-1.476831599694063 1:0.60095394 2:0.37977737 3:0.32524607 4:0.57570267 5:0.54607922 6:0.14581363 7:0.50479114 8:0.25025564 9:0.75015324 10:0.43081293 11:0.53202116 12:0.6155262 13:0.10721794 14:0.52740502 15:0.71011609 16:0.36338648 17:0.88188159 18:0.2609252 19:0.42611668 20:0.30507967 21:0.85077775 22:0.18175825 23:0.64288557 24:0.72353977 25:0.73137015 26:0.47500935 27:0.8905803 28:0.42927459 29:0.9151271 
-5.364137084003247 1:0.71194226 2:0.59429353 3:0.51789629 4:0.39985627 5:0.67874402 6:0.48716071 7:0.58081245 8:0.33262649 9:0.73599917 10:0.20960931 11:0.06758105 12:0.62095976 13:0.48433149 14:0.95051241 15:0.29849011 16:0.1133247 17:0.59068835 18:0.56060982 19:0.34770352 20:0.42259201 21:0.87100178 22:0.67465383 23:0.70931143 24:0.60346836 25:0.26281497 26:0.54100859 27:0.86802506 28:0.14054734 29:0.83117777 
-0.1716885891819196 1:0.52958536 2:0.29728821 3:0.23019496 4:0.43350127 5:0.35812852 6:0.25857547 7:0.57180989 8:0.14123423 9:0.73656911 10:0.32796425 11:0.59057808 12:0.35832715 13:0.16317038 14:0.32103044 15:0.38881943 16:0.32016489 17:0.88538468 18:0.010890684 19:0.41537368 20:0.39476225 21:0.95382732 22:0.12611476 23:0.50864738 24:0.47233072 25:0.51686925 26:0.50442874 27:0.83942366 28:0.40427512 29:0.93259025 
-0.1845706327649467 1:0.58833963 2:0.80365252 3:0.52406722 4:0.59221262 5:0.49779612 6:0.37605828 7:0.33425727 8:0.78312039 9:0.72554833 10:0.096568614 11:0.21234092 12:0.581155 13:0.51463306 14:0.39180559 15:0.40631682 16:0.30552882 17:0.74544668 18:1 19:0.52855414 20:0.30255476 21:0.65020925 22:0.82523942 23:0.37999704 24:0.52868372 25:0.32121596 26:0.5189597 27:0.16224587 28:0.1096101 29:0.68426234 
-1.005184926930473 1:0.74974024 2:1 3:0.54768974 4:0.84508818 5:0.40455544 6:0.47424486 7:0.4421103 8:0.69598097 9:1 10:0.40483171 11:0.18278719 12:0.5868845 13:0.55853695 14:0.40589023 15:0.44292462 16:0.20013623 17:1 18:0.80379224 19:0.48044279 20:0.37148198 21:0.71818465 22:0.60432154 23:0.53321874 24:0.59518588 25:0.19638741 26:0.56337589 27:0.3435781 28:0.15041897 29:0.70822382 
-6.017101169665171 1:0.037903029 2:0.4758341 3:0.41629001 4:0.36464098 5:0.86120009 6:0.24164395 7:0.70643944 8:0.15715571 9:0.63086736 10:0.86375618 11:0.50644964 12:0.55411452 13:0.40880325 14:0.5847531 15:0.36052135 16:0.29945797 17:0.065000959 18:0.45870477 19:0.57423413 20:0.44381571 21:0.67773783 22:0.93497986 23:0.37630317 24:0.17796791 25:0.65661436 26:0.53117901 27:0.045487408 28:0.43005151 29:0.61306125 
-4.112434356576189 1:0.52516085 2:0.5451839 3:0.50992393 4:0.26519635 5:0.29105559 6:0.4471586 7:0.56250632 8:0.3060413 9:0.25908059 10:0.54446489 11:0.082545504 12:0.42550886 13:0.098926321 14:0.32967472 15:0.54219979 16:0.16885553 17:0.39429617 18:0.81555593 19:0.45348683 20:0.90235126 21:0.32754195 22:0.54659486 23:0.47154659 24:0.88940114 25:0.37076664 26:0.60332996 27:0.52977228 28:0.34906581 29:0.77466166 
-0.0851491229589242 1:0.3310467 2:0.61589086 3:0.50771135 4:0.4494724 5:0.10153153 6:0.5638994 7:0.49985689 8:0.20055683 9:0.47657922 10:0.51502746 11:0.36053821 12:0.54387414 13:0.34294361 14:0.75809115 15:0.70175964 16:0.13089588 17:0.50896084 18:0.54270291 19:0.16889115 20:0.62669289 21:0.56602585 22:0.58238912 23:0.51966196 24:1 25:0.31648847 26:0.76763332 27:0.29656032 28:0.35825241 29:0.81235629 
-4.436109871824825 1:0.56214195 2:0.63661546 3:0.40639701 4:0.49255988 5:0.41780564 6:0.28385785 7:0.37661755 8:0.83722973 9:0.55445248 10:0.2807211 11:0.70809805 12:0.53979534 13:0.28756166 14:0.44269907 15:0.26783958 16:0.40211755 17:0.61787522 18:0.52963203 19:0.39727721 20:0.7547645 21:0.70165032 22:0.54090226 23:0.56814301 24:0.89301938 25:0.14449722 26:0.69819021 27:0.34225208 28:0.37704581 29:0.81437498 
-4.37333822439978 1:0.86826932 2:0.50330424 3:0.52555591 4:0.28384966 5:0.1733205 6:0.46306309 7:0.58758563 8:0.73530108 9:0.67904061 10:0.26629183 11:0.21633285 12:0.40110418 13:0.46908996 14:0.60161912 15:0.027389025 16:0.18613093 17:0.69464546 18:0.8508234 19:0.4556908 20:0.84044498 21:0.44054058 22:0.23639002 23:0.31313348 24:0.4262664 25:0.53904259 26:0.31230012 27:0.062747367 28:0.39328644 29:0.73118198 
-2.066379020121839 1:0.64713734 2:0.66045642 3:0.30267176 4:0.51084751 5:0.45189998 6:0.39356232 7:0.61786842 8:0.55405301 9:0.69317013 10:0.32709238 11:0.48724571 12:0.17058018 13:0.63161743 14:0.59086996 15:0.16194227 16:0.31839272 17:0.79714072 18:0.8452915 19:0.48476532 20:0.84383088 21:0.41269502 22:0.027015153 23:0.40160501 24:0.41594741 25:0.86664885 26:0.39794987 27:0.36756712 28:0.38069558 29:0.78544647 
-2.882150742068051 1:0.29212376 2:0.64366215 3:0.19960873 4:0.67378646 5:0.4483752 6:0.49355248 7:0.4586505 8:0.58980107 9:0.50498676 10:0.71723616 11:0.65615177 12:0.51520121 13:0.25376174 14:0.31860879 15:0.52814645 16:3.9772183e-16 17:0.485668 18:0.49753502 19:0.43392363 20:0.83631891 21:0.56719172 22:0.5870862 23:0 24:0.61518365 25:0.012114497 26:0.61853111 27:0.51492655 28:0.22339611 29:0.78417277 
-7.497186400054483 1:0.44600296 2:0.25620332 3:0.32369331 4:0.39973357 5:0.18849318 6:0.43882462 7:0.56243086 8:0.13391387 9:0.36908773 10:0.53141451 11:0.24201757 12:0.34419712 13:0.27771991 14:0.38522333 15:0.56331253 16:0.19337068 17:0.77595478 18:0.38045046 19:0.79618829 20:0.47930831 21:0.65119576 22:0.34010917 23:0.32709292 24:0.24089465 25:0.23110324 26:0.37355262 27:0.7659868 28:0.23784906 29:0.74474311 
-0.2631117506678087 1:0.67116445 2:0.69527018 3:0.39883447 4:0.43393853 5:0.32898143 6:0.37407649 7:0.45182347 8:0.75666696 9:0.67628902 10:0.38519543 11:0.5338577 12:0.69051665 13:0.27613425 14:0.42051604 15:0.42457449 16:0.36539656 17:0.51213598 18:0.54766613 19:0.51209688 20:0.72646677 21:0.4209418 22:0.59644306 23:0.19254647 24:0.28158787 25:0.18585534 26:0.59224027 27:0.9122476 28:0.12744784 29:0.84666753 
-1.348493495332387 1:0.60178041 2:0.59694892 3:0.46226138 4:0.53921616 5:0.35117501 6:0.33738074 7:0.31334212 8:0.56496072 9:0.64543915 10:0.49367177 11:0.48945424 12:0.57024264 13:0.29940465 14:0.515104 15:0.47747371 16:0.3049188 17:0.42715946 18:0.55636275 19:0.33278394 20:0.80005723 21:0.50665015 22:0.66427106 23:0.17642851 24:0.40057215 25:0.24386911 26:0.54551524 27:1 28:0.13012412 29:0.8913554 
